weight
-99
-99
-99
-99
65
169
-99
52
-99
27
56
158
14
-99
-99
158
234
146
176
198
149
41
90
88
90
72
173
83
-99
-99
106
146
-99
126
68
-99
54
81
-99
72
-99
-99
180
-99
57
-99
52
-99
61
95
77
79
-99
68
-99
135
155
113
58
59
-99
90
92
-99
-99
86
-99
97
135
61
59
-99
90
-99
101
74
61
-99
50
55
54
170
78
-99
173
-99
817
90
91
101
89
63
412
-99
80
57
-99
203
-99
-99
-99
91
81
88
86
52
-99
-99
630
-99
270
115
88
95
90
63
89
61
88
54
-99
65
81
59
65
-99
-99
-99
-99
-99
90
86
72
-99
-99
-99
356
-99
324
-99
18
79
95
54
65
95
288
-99
-99
135
-99
72
72
90
90
86
77
-99
61
86
-99
-99
-99
-99
90
79
-99
-99
59
-99
-99
-99
79
-99
54
-99
80
55
50
81
81
83
97
50
70
83
81
56
146
85
-99
-99
79
101
56
38
-99
63
63
54
-99
-99
-99
-99
92
72
-99
-99
437
113
-99
-99
-99
71
62
63
131
91
68
77
54
101
-99
101
81
-99
59
82
71
63
67
-99
-99
51
74
57
81
-99
-99
135
-99
79
79
-99
-99
-99
-99
77
-99
-99
17
-99
-99
-99
-99
-99
-99
-99
-99
-99
-99
-99
-99
-99
-99
-99
-99
-99
-99
-99
-99
-99
-99
-99
-99
-99
-99
-99
405
-99
-99
-99
441
441
-99
122
61
81
104
108
90
101
68
57
54
90
122
86
358
135
63
68
57
98
270
59
50
101
63
67
77
54
133
63
181
-99
216
-99
71
54
-99
-99
-99
124
-99
95
54
-99
86
52
90
59
61
104
86
88
97
-99
68
56
-99
-99
77
230
495
-99
-99
-99
55
-99
-99
110
-99
99
90
-99
158
74
81
108
116
108
74
-99
-99
86
61
-99
62
97
-99
63
81
-99
70
225
67
79
99
-99
104
50
88
68
52
90
81
56
52
95
178
95
383
90
171
187
132
110
81
54
104
-99
306
-99
74
59
65
95
106
88
96
108
-99
50
18
56
99
56
-99
81
45
92
104
167
16
81
77
86
99
-99
-99
-99
268
50
-99
-99
-99
90
79
83
77
88
79
4
-99
79
104
57
225
61
81
146
83
-99
48
18
630
77
58
77
119
207
65
81
54
79
191
2
79
52
55
56
113
88
49
52
855
-99
81
104
203
97
99
106
-99
58
63
-99
59
360
-99
230
236
36
191
-99
-99
79
383
86
-99
225
90
97
52
56
110
59
54
140
-99
101
81
-99
128
61
338
248
101
59
79
79
72
70
61
70
79
54
-99
125
85
101
83
-99
99
88
83
86
59
293
191
-99
405
-99
-99
89
52
87
52
-99
86
-99
70
90
74
68
79
56
117
630
108
320
72
25
54
104
171
61
203
900
74
113
59
-99
310
-99
87
149
50
79
88
315
153
79
52
191
-99
101
50
52
180
-99
49
65
-99
-99
54
56
74
77
56
59
-99
55
58
83
-99
79
-99
57
77
47
74
99
54
443
225
288
143
101
-99
74
288
158
203
81
54
76
97
117
86
105
331
58
54
214
79
117
50
334
-99
52
54
-99
135
135
-99
79
162
95
54
108
158
50
-99
-99
65
117
39
473
135
171
-99
117
50
61
95
83
52
-99
-99
-99
-99
-99
-99
-99
-99
-99
-99
-99
-99
-99
-99
-99
-99
-99
-99
-99
-99
-99
-99
62
54
69
73
-99
117
-99
-99
77
-99
-99
-99
81
-99
-99
-99
-99
-99
-99
86
81
65
56
-99
-99
-99
-99
-99
-99
-99
-99
-99
-99
-99
-99

-99
-99
-99

-99
83
-99

